34 100
23 0.009086 -0.111506 0.021602 0.055170 0.028683 -0.105608 0.032442 0.113003 0.003031 -0.007424 0.024224 0.069668 0.075513 -0.169278 0.022650 -0.102356 -0.043285 -0.032122 -0.025807 0.006835 0.129171 -0.006646 0.074686 0.012528 -0.019616 0.005766 -0.086169 0.045751 0.097495 0.079711 -0.052285 0.046947 -0.068628 0.102052 -0.145925 -0.107288 0.074395 0.007929 -0.027265 -0.059587 -0.091094 0.022087 0.082291 0.052748 -0.099187 0.064184 -0.042706 -0.089521 -0.030977 -0.031936 -0.072257 0.086234 0.034619 0.064181 -0.158072 0.004086 -0.018218 0.020239 -0.026137 0.064271 0.121141 -0.102402 -0.043667 0.080189 -0.005325 -0.049606 -0.014189 0.032572 -0.067349 -0.062126 -0.000237 0.023330 0.046361 -0.017934 0.006776 0.045449 0.100682 -0.001449 0.033961 -0.005705 0.001678 -0.122066 -0.053828 -0.074933 -0.009601 0.092487 -0.005488 -0.030580 0.033957 -0.018546 0.108552 0.082607 0.058587 -0.107166 -0.049034 0.120768 -0.099119 -0.123133 0.056812 -0.003688
0 -0.000972 -0.002609 0.000230 -0.004797 -0.003928 0.002946 -0.001962 -0.001443 -0.001208 0.000136 0.004121 0.000181 0.000871 -0.000017 0.004258 -0.002044 0.003515 -0.000674 -0.002741 -0.001272 -0.002617 -0.002998 -0.000577 0.001338 -0.004463 -0.000721 0.001390 -0.003695 -0.004148 -0.004431 0.002628 0.003425 0.000576 -0.002361 0.004201 -0.002208 0.003782 0.001900 0.003121 -0.003281 -0.004014 -0.002902 -0.002897 0.002747 -0.000348 0.004107 -0.000883 -0.002695 -0.003692 0.001837 -0.002653 -0.001184 -0.002868 -0.004523 -0.001425 -0.001071 -0.003860 0.004516 -0.004990 0.002099 0.000578 -0.004020 0.000398 0.003137 0.000149 -0.003521 -0.000268 -0.004967 -0.002701 0.001564 -0.003684 0.002963 0.003716 0.002802 0.002239 -0.002620 -0.000207 -0.000442 -0.000836 -0.000571 0.002633 -0.002018 0.004698 0.004193 -0.004056 0.001884 -0.000230 -0.001868 0.002005 0.000495 -0.000880 0.004474 0.000927 -0.002592 -0.001138 0.001770 -0.002586 0.001451 0.004199 -0.002146
19 0.014206 -0.138838 0.035512 0.060599 0.033441 -0.127930 0.038469 0.126065 0.003109 -0.005899 0.026836 0.085403 0.087219 -0.194670 0.029444 -0.123731 -0.054720 -0.046444 -0.029690 0.007076 0.156376 -0.009583 0.093883 0.012925 -0.024734 0.012512 -0.098270 0.059644 0.119450 0.088851 -0.060562 0.055279 -0.078847 0.116504 -0.168834 -0.122983 0.081166 0.015915 -0.023970 -0.069656 -0.105977 0.024822 0.094815 0.058331 -0.116734 0.080162 -0.045400 -0.114013 -0.034270 -0.035302 -0.089161 0.101711 0.032979 0.079150 -0.182790 0.013331 -0.021653 0.027382 -0.026375 0.079975 0.141724 -0.121647 -0.051877 0.096268 -0.011587 -0.061130 -0.016611 0.032428 -0.084641 -0.081404 -0.000388 0.026686 0.049991 -0.021510 0.010782 0.048879 0.119755 -0.000321 0.030569 -0.013087 -0.004990 -0.140769 -0.068335 -0.091559 -0.011788 0.105482 0.000513 -0.035885 0.041156 -0.021650 0.125969 0.099217 0.078864 -0.124355 -0.055097 0.149854 -0.119893 -0.142932 0.069510 -0.013078
15 0.008781 -0.187870 0.046139 0.082315 0.048997 -0.170816 0.056156 0.170718 0.000837 -0.010179 0.044385 0.110872 0.120449 -0.264365 0.044286 -0.171064 -0.072714 -0.058943 -0.049364 -0.000943 0.214613 -0.004625 0.128148 0.015755 -0.038214 0.011702 -0.134977 0.079979 0.164809 0.120045 -0.085720 0.076327 -0.105370 0.164463 -0.227107 -0.167275 0.114310 0.016872 -0.032866 -0.093782 -0.147997 0.035327 0.127786 0.081499 -0.160217 0.110979 -0.071353 -0.151333 -0.047339 -0.052582 -0.118226 0.140275 0.049855 0.112014 -0.257605 0.009600 -0.030082 0.029431 -0.040611 0.114956 0.197656 -0.157617 -0.075755 0.122392 -0.012136 -0.073972 -0.025011 0.044044 -0.106271 -0.101189 0.002119 0.033479 0.069638 -0.034649 0.014411 0.071330 0.159804 -0.004377 0.042423 -0.015997 -0.004002 -0.188645 -0.093271 -0.123616 -0.016380 0.140436 -0.007024 -0.055976 0.060296 -0.023326 0.174048 0.133259 0.104339 -0.175282 -0.074990 0.201843 -0.160198 -0.189166 0.095948 -0.009187
16 0.009394 -0.132883 0.031713 0.062996 0.033112 -0.127773 0.042377 0.126719 0.001442 -0.005265 0.027703 0.083381 0.084862 -0.189548 0.035063 -0.126081 -0.054849 -0.046612 -0.037904 -0.002096 0.152098 -0.004076 0.095644 0.008408 -0.021962 0.008726 -0.093929 0.057398 0.117654 0.084881 -0.063642 0.055498 -0.080814 0.115078 -0.162943 -0.119179 0.089217 0.008705 -0.030290 -0.074609 -0.108161 0.029819 0.097205 0.059671 -0.116548 0.075307 -0.044756 -0.106245 -0.036355 -0.031432 -0.082190 0.102685 0.037742 0.082262 -0.182455 0.010761 -0.018530 0.025406 -0.028997 0.075954 0.143861 -0.122396 -0.056865 0.087216 -0.007728 -0.057814 -0.019625 0.037230 -0.082209 -0.081067 0.003106 0.021244 0.050128 -0.024853 0.017625 0.051045 0.119409 -0.006099 0.031715 -0.007372 0.001055 -0.141595 -0.067164 -0.088695 -0.007909 0.108186 -0.002462 -0.033452 0.046363 -0.017860 0.121133 0.096173 0.068148 -0.123032 -0.051476 0.147721 -0.113619 -0.143959 0.066050 -0.014336
1 0.029904 -0.386565 0.085599 0.165664 0.093150 -0.363981 0.112683 0.373650 0.010613 -0.019995 0.075266 0.234056 0.252330 -0.553972 0.090150 -0.358657 -0.139327 -0.126780 -0.083434 -0.000949 0.434155 -0.021795 0.258502 0.031625 -0.056462 0.022179 -0.263846 0.168280 0.343303 0.243959 -0.167741 0.144176 -0.228810 0.335684 -0.467409 -0.342484 0.233160 0.028215 -0.066110 -0.208970 -0.296878 0.062648 0.274565 0.180538 -0.340732 0.210108 -0.132313 -0.310376 -0.071726 -0.093797 -0.254262 0.280034 0.101369 0.247049 -0.533405 0.028855 -0.044620 0.079169 -0.086736 0.227595 0.402088 -0.331171 -0.154586 0.256186 -0.041363 -0.139742 -0.061408 0.100100 -0.232715 -0.230998 -0.016997 0.069536 0.140053 -0.064964 0.046295 0.152166 0.335336 -0.010548 0.099488 -0.046108 -0.026318 -0.392645 -0.192899 -0.239222 -0.027211 0.276478 0.001895 -0.111340 0.135868 -0.050119 0.361368 0.260935 0.208109 -0.355243 -0.163765 0.403488 -0.328712 -0.418115 0.188781 -0.011874
14 0.022679 -0.290161 0.068137 0.125139 0.073336 -0.269842 0.081816 0.274744 -0.000469 -0.011926 0.056289 0.177869 0.186182 -0.414754 0.068359 -0.264774 -0.104802 -0.091466 -0.065896 -0.000296 0.329483 -0.009176 0.195094 0.025019 -0.049053 0.019960 -0.197631 0.129232 0.252957 0.191461 -0.122566 0.109431 -0.173209 0.258390 -0.347773 -0.257911 0.178297 0.023682 -0.055809 -0.152117 -0.225118 0.051262 0.204812 0.134406 -0.254776 0.163534 -0.098510 -0.230991 -0.061820 -0.070919 -0.188370 0.208900 0.076870 0.181659 -0.397210 0.019404 -0.038476 0.060265 -0.067701 0.167497 0.300304 -0.250647 -0.112561 0.188925 -0.029864 -0.107296 -0.042952 0.068249 -0.172458 -0.172632 -0.013105 0.058830 0.099773 -0.044165 0.038370 0.118329 0.250296 -0.007229 0.072426 -0.031493 -0.017747 -0.294581 -0.142185 -0.175596 -0.022325 0.220079 -0.001818 -0.084591 0.101173 -0.040857 0.268453 0.197042 0.155567 -0.269818 -0.121783 0.310569 -0.252686 -0.304518 0.145033 -0.012539
29 0.014033 -0.210490 0.045832 0.095472 0.056761 -0.203721 0.060927 0.195803 -0.000657 -0.008160 0.050264 0.131794 0.135308 -0.305908 0.047650 -0.196519 -0.083176 -0.068982 -0.048357 0.003523 0.242790 -0.009953 0.140102 0.015317 -0.043116 0.011264 -0.149851 0.090276 0.192810 0.143585 -0.091050 0.081328 -0.122106 0.189480 -0.263841 -0.189156 0.137712 0.021128 -0.039263 -0.114478 -0.159372 0.042378 0.142036 0.088235 -0.183743 0.125404 -0.078332 -0.172672 -0.055066 -0.057705 -0.136046 0.156654 0.055162 0.126653 -0.296610 0.021268 -0.022323 0.042678 -0.046911 0.128904 0.222247 -0.187974 -0.090881 0.143635 -0.020715 -0.090639 -0.035804 0.049475 -0.123321 -0.115893 -0.005798 0.040670 0.073407 -0.031659 0.021468 0.088160 0.184960 -0.004596 0.056532 -0.014588 -0.010662 -0.216771 -0.103724 -0.140367 -0.011815 0.165703 -0.001926 -0.063983 0.070326 -0.035761 0.197306 0.145450 0.112840 -0.196508 -0.077573 0.230839 -0.189910 -0.217650 0.105939 -0.018565
5 0.024706 -0.250717 0.042730 0.107661 0.057659 -0.228474 0.079691 0.233313 0.016126 -0.017003 0.051142 0.154762 0.154473 -0.350081 0.066084 -0.230129 -0.092816 -0.088487 -0.057870 0.000785 0.278658 -0.013711 0.158984 0.024993 -0.028563 0.004907 -0.171716 0.095024 0.211323 0.153800 -0.102874 0.088340 -0.145992 0.207674 -0.292612 -0.218429 0.151460 0.021610 -0.049249 -0.134755 -0.186269 0.042734 0.171928 0.113151 -0.222337 0.138201 -0.075979 -0.196741 -0.040450 -0.060328 -0.164645 0.184361 0.067774 0.151315 -0.332392 0.012920 -0.024310 0.044360 -0.045920 0.137174 0.255264 -0.209732 -0.089198 0.168996 -0.033277 -0.086891 -0.037582 0.065022 -0.143985 -0.156179 -0.016656 0.048671 0.077287 -0.043484 0.036711 0.095705 0.205788 -0.007721 0.055611 -0.036926 -0.022258 -0.239991 -0.122243 -0.144361 -0.021234 0.164996 0.007571 -0.065479 0.087044 -0.030830 0.237141 0.161865 0.139367 -0.219945 -0.108018 0.258205 -0.205498 -0.273799 0.120871 -0.001065
9 0.017282 -0.261665 0.055893 0.120168 0.067123 -0.249108 0.075636 0.251102 0.004834 -0.012432 0.060246 0.162015 0.171387 -0.381829 0.058021 -0.241603 -0.099904 -0.077286 -0.066378 0.006367 0.293769 -0.005812 0.185181 0.015453 -0.050412 0.019415 -0.188200 0.109898 0.232520 0.177071 -0.115354 0.107613 -0.157347 0.231700 -0.318047 -0.239256 0.169445 0.024606 -0.057142 -0.132953 -0.209200 0.045281 0.184470 0.119225 -0.236195 0.147330 -0.093310 -0.215786 -0.066708 -0.076550 -0.170668 0.198535 0.068629 0.157860 -0.356787 0.018383 -0.036949 0.048154 -0.061186 0.154739 0.274347 -0.228777 -0.111928 0.181211 -0.017944 -0.112088 -0.036469 0.064024 -0.158938 -0.149859 -0.000434 0.055376 0.099965 -0.045119 0.029211 0.101155 0.220564 -0.001546 0.063521 -0.014500 -0.003959 -0.273862 -0.136719 -0.174221 -0.019026 0.203450 -0.005886 -0.073049 0.083330 -0.036132 0.246283 0.183033 0.146750 -0.240585 -0.101808 0.276431 -0.227269 -0.275449 0.131990 -0.016441
21 0.010613 -0.200474 0.047881 0.091036 0.048053 -0.195611 0.058334 0.190647 0.001245 -0.003947 0.047442 0.123768 0.134095 -0.299352 0.046244 -0.186831 -0.076333 -0.062687 -0.047521 0.004833 0.236360 -0.008390 0.139622 0.018301 -0.037366 0.011583 -0.143860 0.089815 0.182389 0.136775 -0.088537 0.080239 -0.120753 0.185543 -0.256180 -0.188732 0.128115 0.023937 -0.038184 -0.104718 -0.164527 0.044206 0.138873 0.086649 -0.185527 0.119470 -0.072544 -0.165378 -0.047281 -0.057005 -0.126357 0.158146 0.059656 0.118144 -0.282691 0.018133 -0.027654 0.033042 -0.051182 0.126868 0.211589 -0.179104 -0.083872 0.144108 -0.010256 -0.089047 -0.030045 0.045344 -0.125550 -0.121464 0.003565 0.034893 0.075542 -0.031180 0.022252 0.080699 0.171162 -0.008900 0.054552 -0.009072 -0.006881 -0.212000 -0.105414 -0.137812 -0.017539 0.156818 -0.008792 -0.059497 0.071358 -0.033075 0.194743 0.146849 0.108259 -0.186369 -0.078235 0.218522 -0.183093 -0.212435 0.105495 -0.015999
11 0.024189 -0.304913 0.061199 0.134302 0.069843 -0.280640 0.088009 0.294196 0.015920 -0.020476 0.058174 0.185488 0.191360 -0.427619 0.081080 -0.280800 -0.112322 -0.103191 -0.069387 -0.004900 0.342317 -0.021554 0.204367 0.025479 -0.041326 0.008220 -0.213018 0.123184 0.257671 0.187224 -0.121231 0.110967 -0.172482 0.248869 -0.361372 -0.259510 0.189662 0.027583 -0.058823 -0.159987 -0.231049 0.057801 0.217767 0.137938 -0.269707 0.172503 -0.092091 -0.236144 -0.054511 -0.070668 -0.197101 0.223151 0.078692 0.189854 -0.412066 0.016620 -0.032852 0.059136 -0.066512 0.176978 0.314542 -0.257358 -0.109335 0.206827 -0.038671 -0.107958 -0.055118 0.079437 -0.175594 -0.189532 -0.015240 0.058616 0.096345 -0.050202 0.045949 0.122896 0.256579 -0.008300 0.069935 -0.038845 -0.019045 -0.292361 -0.148982 -0.180267 -0.026875 0.211129 0.008218 -0.085029 0.105265 -0.037690 0.283395 0.198030 0.169501 -0.269167 -0.123746 0.313020 -0.246068 -0.329998 0.141702 -0.004992
10 0.016191 -0.198928 0.042941 0.092498 0.053598 -0.184029 0.060593 0.188875 0.004559 -0.013239 0.047690 0.123400 0.126168 -0.282302 0.043797 -0.178850 -0.072567 -0.057966 -0.050243 0.004348 0.228722 -0.008672 0.136800 0.020243 -0.038197 0.011319 -0.138456 0.083167 0.176301 0.128696 -0.092663 0.072686 -0.115974 0.181803 -0.248014 -0.179845 0.128618 0.013413 -0.042800 -0.107754 -0.156539 0.034845 0.143322 0.092516 -0.171494 0.118535 -0.065964 -0.163395 -0.042519 -0.057622 -0.126424 0.149403 0.058317 0.117718 -0.275599 0.018093 -0.023233 0.033025 -0.049721 0.120683 0.209776 -0.172982 -0.086995 0.136137 -0.015366 -0.079954 -0.032424 0.044949 -0.123221 -0.118275 0.001184 0.033968 0.077555 -0.033544 0.025364 0.080561 0.170611 -0.007330 0.046845 -0.014999 -0.011874 -0.209398 -0.100336 -0.124529 -0.016888 0.154142 -0.006879 -0.060029 0.066163 -0.030948 0.189211 0.140346 0.111741 -0.181651 -0.078042 0.216012 -0.175536 -0.214717 0.101492 -0.009510
12 0.012087 -0.188606 0.038631 0.078256 0.040047 -0.174267 0.052016 0.172728 0.001734 -0.006195 0.042140 0.118249 0.118682 -0.262539 0.045753 -0.166615 -0.073296 -0.059035 -0.039989 -0.004331 0.210498 -0.007026 0.126423 0.012060 -0.031771 0.006813 -0.126030 0.078597 0.162931 0.117750 -0.075290 0.070936 -0.113886 0.160464 -0.222367 -0.158996 0.112800 0.017970 -0.035399 -0.096684 -0.142605 0.032849 0.132801 0.083056 -0.165003 0.108854 -0.058846 -0.149539 -0.039703 -0.048182 -0.123384 0.137260 0.048435 0.110581 -0.257863 0.008851 -0.020728 0.035598 -0.039493 0.110486 0.196456 -0.155051 -0.075121 0.126889 -0.023407 -0.067950 -0.026805 0.046941 -0.105487 -0.106491 -0.003061 0.038583 0.065320 -0.028744 0.025201 0.074222 0.162692 0.000817 0.046937 -0.015793 -0.012636 -0.183887 -0.096185 -0.115286 -0.016638 0.138191 -0.000149 -0.053824 0.059793 -0.028531 0.173806 0.129015 0.099608 -0.171181 -0.074754 0.191746 -0.152344 -0.204854 0.090620 -0.006636
30 0.022170 -0.272410 0.057827 0.129975 0.064696 -0.251907 0.081338 0.249640 -0.000439 -0.009783 0.056728 0.159841 0.171979 -0.385592 0.057259 -0.247054 -0.097188 -0.082361 -0.070855 0.010736 0.305714 -0.011924 0.190105 0.016604 -0.049231 0.013604 -0.188492 0.115786 0.232138 0.181857 -0.120994 0.104187 -0.155270 0.236134 -0.332811 -0.238963 0.169071 0.029193 -0.054231 -0.143452 -0.210507 0.053113 0.186529 0.120388 -0.236450 0.155438 -0.096379 -0.220374 -0.068943 -0.072049 -0.170448 0.207940 0.075137 0.152010 -0.363280 0.022136 -0.041529 0.049727 -0.058734 0.162289 0.280303 -0.238030 -0.106529 0.185668 -0.015549 -0.118360 -0.040736 0.064017 -0.158483 -0.154353 0.001680 0.053909 0.096835 -0.043954 0.023784 0.101177 0.226134 -0.001966 0.068016 -0.011191 -0.010314 -0.280847 -0.138725 -0.174434 -0.017424 0.213377 -0.012945 -0.071504 0.082988 -0.037570 0.251370 0.184718 0.146654 -0.246448 -0.094988 0.289358 -0.237568 -0.274476 0.137667 -0.024750
20 0.023685 -0.298121 0.065995 0.135415 0.070165 -0.284972 0.091316 0.285705 -0.001974 -0.016308 0.061249 0.177092 0.198539 -0.427370 0.067684 -0.274897 -0.114788 -0.091448 -0.072013 -0.000331 0.339303 -0.015702 0.205734 0.023413 -0.048606 0.021838 -0.203619 0.127010 0.266181 0.190432 -0.133540 0.111741 -0.174835 0.261910 -0.358922 -0.262530 0.190335 0.021563 -0.060249 -0.160796 -0.233283 0.051488 0.204460 0.133499 -0.260108 0.167867 -0.099986 -0.240453 -0.065114 -0.082458 -0.195840 0.218312 0.084012 0.177267 -0.409545 0.023175 -0.036177 0.051709 -0.070814 0.179053 0.314734 -0.253847 -0.118058 0.201743 -0.026809 -0.117967 -0.045437 0.076385 -0.180667 -0.169391 -0.010215 0.059439 0.104473 -0.050452 0.032778 0.121583 0.257377 -0.007915 0.077355 -0.022064 -0.012296 -0.309144 -0.150174 -0.192206 -0.016090 0.229611 -0.006195 -0.082267 0.097092 -0.039092 0.280235 0.206281 0.161179 -0.277998 -0.118429 0.315802 -0.255131 -0.316418 0.143228 -0.011910
3 0.023791 -0.374986 0.091328 0.173818 0.098101 -0.358827 0.112067 0.359782 -0.005216 -0.019667 0.087016 0.225255 0.241555 -0.549321 0.083604 -0.351298 -0.136166 -0.120580 -0.090837 0.004028 0.423962 -0.013230 0.256171 0.033066 -0.063451 0.022813 -0.266967 0.169417 0.344797 0.254963 -0.170568 0.143432 -0.228608 0.343875 -0.465549 -0.343847 0.240299 0.037363 -0.071315 -0.193211 -0.291113 0.063885 0.265632 0.172917 -0.336679 0.212586 -0.131916 -0.311757 -0.096098 -0.099669 -0.237600 0.276728 0.098968 0.230895 -0.525144 0.026178 -0.050859 0.072523 -0.089252 0.230370 0.389906 -0.325819 -0.156966 0.260501 -0.029904 -0.157345 -0.052236 0.095710 -0.225371 -0.222327 -0.003081 0.074388 0.135355 -0.059769 0.041068 0.148527 0.329842 -0.009435 0.101722 -0.029055 -0.013643 -0.389541 -0.192740 -0.245155 -0.021250 0.294382 -0.005747 -0.105433 0.123169 -0.055714 0.349367 0.267515 0.200973 -0.353911 -0.154075 0.407668 -0.336978 -0.394905 0.192791 -0.023960
8 0.029230 -0.325736 0.073563 0.144759 0.075756 -0.302700 0.096590 0.311308 0.001326 -0.012085 0.065972 0.198240 0.208003 -0.465137 0.080567 -0.303347 -0.118616 -0.101643 -0.070072 0.006596 0.364608 -0.015759 0.218278 0.019884 -0.051586 0.026076 -0.225428 0.143873 0.287584 0.213075 -0.141099 0.120855 -0.192202 0.289820 -0.394660 -0.288256 0.206608 0.024815 -0.054795 -0.164168 -0.248065 0.057268 0.223402 0.151919 -0.283060 0.185288 -0.115996 -0.264010 -0.071741 -0.082855 -0.211395 0.228589 0.094102 0.204688 -0.450399 0.024933 -0.042905 0.060951 -0.075238 0.187752 0.333896 -0.281389 -0.128252 0.217229 -0.025701 -0.125741 -0.047401 0.077234 -0.192538 -0.194751 -0.015012 0.059892 0.114357 -0.055895 0.039000 0.132584 0.277162 -0.008159 0.081320 -0.030714 -0.014975 -0.336130 -0.167354 -0.200331 -0.025266 0.247968 0.004640 -0.092425 0.112514 -0.048087 0.304893 0.218473 0.172427 -0.302393 -0.137229 0.339327 -0.282775 -0.350443 0.154293 -0.018730
13 0.024233 -0.240043 0.053530 0.104452 0.056905 -0.227267 0.072995 0.227696 0.004369 -0.008983 0.047694 0.143078 0.158467 -0.350488 0.059322 -0.222650 -0.093429 -0.079417 -0.058146 -0.002151 0.277299 -0.012526 0.158140 0.019552 -0.043361 0.012858 -0.163754 0.106037 0.215181 0.156577 -0.106823 0.092520 -0.143813 0.207982 -0.293045 -0.216891 0.155045 0.025674 -0.045592 -0.128773 -0.182653 0.043118 0.169789 0.111927 -0.213093 0.140143 -0.080304 -0.194235 -0.053203 -0.058976 -0.159475 0.179550 0.067494 0.152499 -0.335209 0.013791 -0.033179 0.042679 -0.049131 0.138521 0.254951 -0.205213 -0.098638 0.158648 -0.019031 -0.095957 -0.041553 0.057461 -0.139131 -0.148041 -0.011254 0.044435 0.085212 -0.043160 0.031062 0.091987 0.205542 -0.006772 0.056638 -0.027166 -0.012991 -0.248742 -0.122220 -0.152324 -0.020338 0.178475 0.003666 -0.069803 0.078092 -0.027706 0.231342 0.162983 0.127102 -0.227229 -0.098231 0.252564 -0.207161 -0.263889 0.114491 -0.011087
17 0.028930 -0.285229 0.053971 0.125976 0.054287 -0.262495 0.090587 0.277409 0.020746 -0.011974 0.054394 0.179947 0.184310 -0.401811 0.072494 -0.256484 -0.103621 -0.104747 -0.066911 -0.000088 0.317328 -0.027416 0.190823 0.020189 -0.027433 0.011151 -0.198813 0.112276 0.246126 0.180254 -0.111500 0.102941 -0.161783 0.232404 -0.342495 -0.250177 0.175484 0.024006 -0.055842 -0.154356 -0.221422 0.045212 0.199343 0.136254 -0.254935 0.156504 -0.084212 -0.221458 -0.042829 -0.062833 -0.193016 0.204145 0.073738 0.177168 -0.383627 0.016207 -0.035194 0.056923 -0.051335 0.158565 0.298064 -0.237998 -0.100821 0.188483 -0.034995 -0.093458 -0.049821 0.077250 -0.166606 -0.177056 -0.022908 0.054946 0.090793 -0.048232 0.047213 0.120453 0.236639 -0.006081 0.068857 -0.045433 -0.022513 -0.273468 -0.133802 -0.158300 -0.026678 0.190992 0.011744 -0.083473 0.103231 -0.035378 0.267058 0.185813 0.158346 -0.249835 -0.124125 0.294349 -0.224146 -0.312773 0.134957 -0.001304
31 0.024123 -0.282244 0.069978 0.134743 0.072523 -0.274642 0.081296 0.265418 -0.004995 -0.011722 0.068198 0.176564 0.190102 -0.413244 0.064980 -0.265987 -0.111811 -0.083955 -0.066446 0.004457 0.324073 -0.013139 0.191906 0.025683 -0.050467 0.020783 -0.197040 0.128968 0.254080 0.188891 -0.131061 0.115957 -0.173939 0.259165 -0.344897 -0.251723 0.177072 0.023590 -0.051076 -0.152367 -0.218547 0.056497 0.198207 0.123079 -0.252610 0.161587 -0.106396 -0.235496 -0.070521 -0.074690 -0.185479 0.215271 0.078418 0.168068 -0.389088 0.019659 -0.035240 0.051443 -0.069850 0.164806 0.300962 -0.249002 -0.121929 0.187719 -0.025214 -0.119413 -0.046669 0.065493 -0.172382 -0.161444 -0.002521 0.051351 0.104880 -0.047424 0.030768 0.112638 0.249056 -0.009159 0.078270 -0.017039 -0.006652 -0.297370 -0.146921 -0.186418 -0.016468 0.220119 -0.010265 -0.082727 0.094909 -0.043980 0.258663 0.203977 0.157362 -0.267361 -0.116523 0.305127 -0.253590 -0.299027 0.142873 -0.014729
32 0.021667 -0.384831 0.082844 0.177657 0.098109 -0.359979 0.115042 0.355379 -0.003106 -0.016841 0.085700 0.228191 0.244900 -0.543040 0.083834 -0.343097 -0.137385 -0.119798 -0.098290 0.009050 0.431897 -0.009421 0.258150 0.028532 -0.076743 0.019630 -0.275181 0.169611 0.337795 0.252156 -0.171705 0.151790 -0.215836 0.340720 -0.473387 -0.344256 0.244772 0.043085 -0.080662 -0.203422 -0.304331 0.074614 0.261920 0.162844 -0.342713 0.217689 -0.132108 -0.304091 -0.096603 -0.109521 -0.242610 0.294418 0.100600 0.225973 -0.525458 0.024505 -0.052833 0.066522 -0.089498 0.229656 0.397566 -0.330441 -0.160875 0.267989 -0.036231 -0.166761 -0.058458 0.098758 -0.229947 -0.221574 -0.005631 0.080160 0.137514 -0.063017 0.029487 0.149880 0.320332 -0.007118 0.096038 -0.022488 -0.009834 -0.397534 -0.185314 -0.245748 -0.024198 0.302610 -0.011449 -0.102726 0.122978 -0.060280 0.353414 0.273197 0.211196 -0.357820 -0.137737 0.407955 -0.331600 -0.397204 0.188112 -0.036168
24 0.026734 -0.380784 0.093570 0.184647 0.101181 -0.363637 0.110554 0.359243 0.000558 -0.015385 0.093513 0.226833 0.251544 -0.550886 0.083454 -0.350247 -0.142478 -0.117095 -0.093323 0.008265 0.434818 -0.010715 0.265202 0.035215 -0.073064 0.027736 -0.276533 0.162968 0.336623 0.260406 -0.177105 0.156307 -0.227449 0.339426 -0.469878 -0.348547 0.247373 0.034825 -0.080737 -0.201397 -0.300550 0.078808 0.263041 0.166337 -0.339964 0.222819 -0.142392 -0.303797 -0.098397 -0.110164 -0.237688 0.295723 0.099228 0.227563 -0.518272 0.033113 -0.048753 0.067914 -0.091402 0.229478 0.397451 -0.335214 -0.157057 0.264875 -0.033523 -0.171513 -0.055147 0.097216 -0.232689 -0.211660 0.002263 0.079611 0.133559 -0.061454 0.031253 0.147157 0.316423 -0.012388 0.096462 -0.015097 -0.000387 -0.395256 -0.190010 -0.245881 -0.027414 0.298228 -0.018152 -0.098342 0.123842 -0.054857 0.350327 0.272977 0.210635 -0.358959 -0.136882 0.415558 -0.331331 -0.394106 0.193376 -0.034617
25 0.016287 -0.349821 0.077709 0.161096 0.085233 -0.330973 0.099017 0.319265 0.002618 -0.016719 0.078667 0.202160 0.225995 -0.492573 0.073171 -0.320092 -0.123186 -0.110680 -0.082668 0.015043 0.398332 -0.011640 0.243734 0.032564 -0.067366 0.015367 -0.250047 0.149413 0.301656 0.237480 -0.153794 0.141825 -0.199260 0.304418 -0.436075 -0.314396 0.217650 0.041020 -0.076745 -0.185358 -0.280224 0.069778 0.234939 0.144090 -0.307312 0.205870 -0.124280 -0.273196 -0.086890 -0.098060 -0.225619 0.272964 0.095773 0.204878 -0.480106 0.023113 -0.043093 0.054351 -0.085443 0.215652 0.358769 -0.299931 -0.140713 0.240830 -0.034131 -0.157003 -0.051329 0.090781 -0.216270 -0.196325 -0.001779 0.068341 0.126354 -0.052704 0.025812 0.128178 0.283530 -0.003594 0.091098 -0.019740 -0.005437 -0.365524 -0.171265 -0.230432 -0.022895 0.274436 -0.014741 -0.098164 0.105092 -0.058154 0.316666 0.246316 0.195760 -0.329071 -0.126261 0.374479 -0.303479 -0.358626 0.177181 -0.030039
26 0.025161 -0.355249 0.083391 0.166147 0.094326 -0.340763 0.107503 0.329850 -0.006651 -0.018930 0.080893 0.205812 0.236136 -0.513507 0.075177 -0.319886 -0.126917 -0.111060 -0.090963 0.012610 0.410314 -0.009394 0.251884 0.032563 -0.073762 0.016911 -0.265065 0.151069 0.310956 0.245431 -0.157163 0.147095 -0.203381 0.311236 -0.448749 -0.329487 0.230354 0.036226 -0.079169 -0.189415 -0.285382 0.065319 0.240258 0.150131 -0.321315 0.213089 -0.133712 -0.284957 -0.095534 -0.097143 -0.222115 0.281612 0.093453 0.203690 -0.488320 0.024986 -0.046385 0.061702 -0.089909 0.219139 0.373342 -0.313754 -0.146233 0.255288 -0.029501 -0.159539 -0.048695 0.086833 -0.216195 -0.201531 0.000100 0.075011 0.123143 -0.058398 0.029940 0.132426 0.289687 -0.006359 0.088068 -0.019606 -0.008734 -0.369317 -0.174540 -0.229836 -0.020262 0.286541 -0.020310 -0.094271 0.111157 -0.054787 0.331024 0.254938 0.201375 -0.328859 -0.122355 0.381124 -0.312204 -0.366962 0.184689 -0.036782
27 0.018650 -0.237410 0.050725 0.104585 0.061545 -0.218355 0.069168 0.223394 -0.004600 -0.008792 0.051190 0.136770 0.149274 -0.328319 0.050776 -0.215453 -0.081311 -0.072649 -0.057249 0.000944 0.268272 -0.005238 0.163510 0.022720 -0.044727 0.011221 -0.171083 0.105666 0.203228 0.158155 -0.104009 0.088810 -0.138408 0.205080 -0.283243 -0.213617 0.144472 0.021262 -0.049385 -0.123234 -0.186148 0.045137 0.159031 0.101681 -0.203421 0.137968 -0.079810 -0.188970 -0.059614 -0.062137 -0.143096 0.179312 0.060576 0.140925 -0.319071 0.014432 -0.032737 0.043613 -0.050135 0.142611 0.238221 -0.198366 -0.099217 0.159010 -0.015449 -0.100400 -0.036523 0.059544 -0.140697 -0.131419 -0.004445 0.049673 0.085988 -0.043568 0.016954 0.086058 0.199651 -0.009312 0.056788 -0.010732 -0.008001 -0.243452 -0.117464 -0.146932 -0.020529 0.184497 -0.003004 -0.065690 0.069626 -0.033378 0.210377 0.159522 0.127421 -0.215815 -0.090385 0.250158 -0.203510 -0.244592 0.122433 -0.023153
22 0.027569 -0.267394 0.056610 0.117767 0.063779 -0.254792 0.076775 0.255095 -0.001539 -0.015015 0.053031 0.164406 0.177376 -0.386424 0.066733 -0.249390 -0.103282 -0.086150 -0.056476 0.005952 0.304798 -0.014204 0.184052 0.020650 -0.046044 0.020758 -0.185499 0.110574 0.241660 0.175510 -0.114718 0.094562 -0.163226 0.235664 -0.324731 -0.238810 0.164024 0.019188 -0.050962 -0.144398 -0.197649 0.041337 0.183486 0.126204 -0.232175 0.153426 -0.096463 -0.213854 -0.051137 -0.071085 -0.176240 0.187311 0.068432 0.165514 -0.363946 0.020165 -0.027326 0.056637 -0.056328 0.152456 0.280136 -0.224967 -0.103820 0.180959 -0.025586 -0.096858 -0.048117 0.068109 -0.153121 -0.154272 -0.013231 0.052945 0.095714 -0.047830 0.038536 0.110383 0.228101 -0.003678 0.072355 -0.028540 -0.020592 -0.273691 -0.131581 -0.170918 -0.016677 0.194517 0.005961 -0.081942 0.095542 -0.036109 0.252462 0.179854 0.143171 -0.253306 -0.114399 0.282167 -0.231960 -0.286136 0.133146 -0.013280
28 0.018301 -0.353931 0.087520 0.163394 0.091338 -0.328818 0.102857 0.327779 -0.006682 -0.016909 0.082566 0.212041 0.227521 -0.499327 0.073012 -0.321043 -0.129342 -0.110658 -0.082064 0.011062 0.393345 -0.011173 0.240864 0.027272 -0.070860 0.025651 -0.256013 0.155626 0.316375 0.234995 -0.159083 0.143831 -0.202361 0.318130 -0.432844 -0.322735 0.226879 0.036499 -0.069394 -0.181660 -0.276881 0.061669 0.244747 0.156408 -0.315375 0.198297 -0.132299 -0.284160 -0.094983 -0.101363 -0.227088 0.267260 0.097625 0.203907 -0.477194 0.026094 -0.050407 0.059098 -0.089053 0.212904 0.364119 -0.308825 -0.141672 0.245498 -0.027019 -0.153299 -0.052266 0.091528 -0.216495 -0.204697 -0.004115 0.074899 0.122374 -0.062158 0.028939 0.137289 0.294707 -0.003947 0.084400 -0.015630 -0.007495 -0.371529 -0.173105 -0.226459 -0.022843 0.282148 -0.010476 -0.091787 0.113310 -0.050736 0.325311 0.248593 0.187412 -0.333004 -0.126183 0.374232 -0.308856 -0.361284 0.176728 -0.033263
2 0.047404 -0.457462 0.099210 0.200001 0.111073 -0.435776 0.135508 0.447507 -0.005575 -0.023493 0.093238 0.286834 0.306817 -0.667155 0.107924 -0.435123 -0.177109 -0.141575 -0.104896 0.003996 0.523266 -0.021494 0.314516 0.033794 -0.078703 0.031101 -0.318971 0.203413 0.421124 0.298925 -0.195349 0.164822 -0.282565 0.416242 -0.563032 -0.402320 0.287418 0.030323 -0.076820 -0.243153 -0.343529 0.082336 0.325706 0.212351 -0.407269 0.254260 -0.165095 -0.377994 -0.093219 -0.124762 -0.297495 0.317331 0.130573 0.297297 -0.645028 0.035572 -0.047578 0.097514 -0.107759 0.275179 0.476692 -0.390041 -0.185566 0.298531 -0.043345 -0.162006 -0.077379 0.109215 -0.278096 -0.274229 -0.022651 0.085273 0.174753 -0.082923 0.056775 0.192532 0.406458 -0.013368 0.120912 -0.048548 -0.033770 -0.477509 -0.239769 -0.287918 -0.023829 0.349339 0.004821 -0.136639 0.166859 -0.067071 0.433368 0.318351 0.244406 -0.439585 -0.205557 0.488084 -0.405386 -0.497725 0.218869 -0.012191
4 0.032477 -0.367204 0.082705 0.168063 0.095324 -0.356369 0.104946 0.364971 0.001228 -0.021738 0.083381 0.230061 0.247610 -0.541047 0.087122 -0.349017 -0.138500 -0.121905 -0.084480 0.006657 0.425467 -0.018870 0.248771 0.026128 -0.059374 0.025171 -0.263218 0.166945 0.342195 0.241555 -0.165184 0.134128 -0.224860 0.333442 -0.458590 -0.334112 0.237922 0.034159 -0.065783 -0.193320 -0.283008 0.060088 0.267928 0.177317 -0.327377 0.205414 -0.131201 -0.310232 -0.084115 -0.101798 -0.238276 0.262767 0.104021 0.236936 -0.522211 0.029715 -0.042015 0.073922 -0.081889 0.218842 0.395052 -0.322814 -0.148899 0.249918 -0.029399 -0.136182 -0.065274 0.094056 -0.222814 -0.224821 -0.013401 0.072963 0.139749 -0.068981 0.049010 0.150270 0.330720 -0.005304 0.093538 -0.032410 -0.020452 -0.390732 -0.191262 -0.233257 -0.020315 0.280845 0.007928 -0.112425 0.132897 -0.050507 0.347165 0.255969 0.194685 -0.352992 -0.160029 0.399085 -0.331780 -0.404429 0.182996 -0.017043
6 0.046980 -0.457137 0.086337 0.203921 0.096759 -0.414496 0.144101 0.443453 0.026553 -0.025606 0.088101 0.278577 0.288797 -0.651236 0.123085 -0.415541 -0.167345 -0.163849 -0.102747 -0.008404 0.507258 -0.039358 0.298938 0.033287 -0.047262 0.008949 -0.315976 0.174652 0.390763 0.288276 -0.181420 0.162191 -0.259976 0.373403 -0.545056 -0.396009 0.278535 0.040635 -0.095428 -0.256865 -0.357221 0.083482 0.329101 0.208089 -0.410630 0.256879 -0.133669 -0.364932 -0.065043 -0.100594 -0.304880 0.338280 0.112066 0.289808 -0.615481 0.026094 -0.050476 0.080256 -0.083489 0.257551 0.481479 -0.377168 -0.167063 0.307614 -0.056545 -0.163809 -0.081208 0.126189 -0.272751 -0.290225 -0.025629 0.088685 0.141281 -0.066640 0.071229 0.183728 0.385922 -0.000830 0.106758 -0.062786 -0.040125 -0.435335 -0.218019 -0.259756 -0.030714 0.302357 0.014075 -0.130686 0.154723 -0.054940 0.437571 0.302379 0.258478 -0.402735 -0.193237 0.476095 -0.364711 -0.509610 0.216259 -0.011184
18 0.026701 -0.273979 0.053997 0.119890 0.067877 -0.259964 0.076384 0.266911 0.006800 -0.008647 0.055571 0.172744 0.184166 -0.395802 0.067124 -0.260060 -0.104652 -0.086180 -0.067126 0.007335 0.316805 -0.015009 0.191240 0.022291 -0.039080 0.020324 -0.190836 0.117971 0.247364 0.179570 -0.117389 0.105128 -0.162026 0.244615 -0.332090 -0.245589 0.169540 0.021497 -0.049028 -0.141939 -0.212098 0.053694 0.189062 0.124366 -0.244386 0.158308 -0.099226 -0.221982 -0.053620 -0.074053 -0.179774 0.193818 0.079278 0.177527 -0.380875 0.024494 -0.030435 0.048556 -0.063846 0.160180 0.289191 -0.239456 -0.108662 0.182618 -0.022743 -0.100873 -0.044123 0.066106 -0.159736 -0.159564 -0.015219 0.052260 0.102169 -0.052260 0.038622 0.114408 0.242119 -0.002798 0.071687 -0.029209 -0.022145 -0.277413 -0.135793 -0.174052 -0.022539 0.205688 0.005676 -0.080218 0.091465 -0.034195 0.258808 0.183721 0.153460 -0.260349 -0.121698 0.292389 -0.239428 -0.292669 0.135267 -0.013194
33 0.015054 -0.356336 0.094330 0.181277 0.107861 -0.349081 0.096420 0.332213 -0.007626 -0.012269 0.097158 0.207211 0.231200 -0.512865 0.075680 -0.316522 -0.135904 -0.089871 -0.097929 0.013135 0.409341 -0.003139 0.255531 0.021276 -0.089101 0.029801 -0.259200 0.161484 0.320821 0.249629 -0.173200 0.158016 -0.209718 0.337374 -0.445890 -0.331669 0.225619 0.037048 -0.082450 -0.169123 -0.282079 0.077910 0.243083 0.138595 -0.313404 0.209437 -0.141760 -0.295204 -0.119231 -0.109056 -0.217488 0.284925 0.103149 0.189579 -0.489130 0.033066 -0.059503 0.064115 -0.082881 0.222401 0.374618 -0.324359 -0.163523 0.247552 -0.008493 -0.180340 -0.036006 0.074558 -0.211252 -0.176538 0.024499 0.066870 0.141500 -0.053704 0.010480 0.137890 0.301092 -0.013603 0.097308 0.001016 0.018324 -0.386670 -0.184595 -0.253033 -0.020493 0.304343 -0.029716 -0.094868 0.107586 -0.054870 0.324250 0.268051 0.187525 -0.338482 -0.112487 0.393650 -0.328548 -0.356810 0.196046 -0.044009
7 0.056133 -0.418305 0.061423 0.173321 0.071113 -0.369471 0.135765 0.412746 0.044885 -0.028288 0.064983 0.261895 0.266138 -0.598832 0.124355 -0.381691 -0.149349 -0.159668 -0.095991 -0.013210 0.464628 -0.047498 0.269533 0.039919 -0.022227 -0.001811 -0.293305 0.151958 0.346809 0.246613 -0.150077 0.147961 -0.242181 0.319688 -0.497690 -0.354810 0.245821 0.023371 -0.082636 -0.243460 -0.330053 0.072238 0.304401 0.205510 -0.373737 0.233477 -0.109283 -0.325482 -0.033527 -0.083185 -0.291602 0.304938 0.102894 0.283639 -0.569671 0.026519 -0.038376 0.073243 -0.066421 0.239070 0.439976 -0.339123 -0.139390 0.281906 -0.066813 -0.122861 -0.077139 0.129152 -0.244953 -0.283730 -0.044988 0.086431 0.116665 -0.062785 0.079915 0.174770 0.349790 0.000747 0.094672 -0.083866 -0.047487 -0.379629 -0.199493 -0.215168 -0.037743 0.250895 0.019247 -0.119219 0.146253 -0.041064 0.410438 0.262801 0.244777 -0.363638 -0.192058 0.431019 -0.313748 -0.484631 0.180169 0.007843
